! -0.017011084518819105 -0.254169241408892 0.027727322999775803 -0.04045362172413937 0.21293218618825452 -0.008085032112790406 -0.06894558561917245 -0.05605937563099 -0.058297509191879655 0.11242777564081764 0.06833416826619029 -0.025916399049379257 -0.07987180632589048 -0.09524023314012287 -0.0015189658924762532 -0.025351085504036423 0.11908385242813146 0.07595133617529148 -0.16843891928334073 -0.006200864075055477
<user> -0.02458120204220046 -0.10996750820597535 0.023675114392523323 -0.0017959087914536276 0.09302240320510831 -0.010098661223112508 -0.025911482156226517 -0.012368989344693408 0.0022934346599957378 0.03636461433513844 0.03149095035947883 -0.009959235130422297 -0.043053091493846125 -0.0325353371430499 0.010818332264490652 -0.005217625970185186 0.05677583732070615 0.025958695723137876 -0.0956262596770301 0.007660921359329611
i -0.02933881614858081 -0.3536404922173425 0.036264788483462644 -0.04638412457256745 0.31868377551493327 -0.01395526152898128 -0.0755090511284596 -0.07622610130032906 -0.04191096613139491 0.10355026700395067 0.049999197860940536 -0.0036439961354756438 -0.1347026341912106 -0.10370235290329309 0.03798210648733005 -0.039284462671843066 0.12353348846630134 0.11986079409205556 -0.22322395857446123 0.0029902796073186426
. -0.021128970588995846 -0.20527522896459646 0.022575341317820533 -0.01399330513714235 0.1739864912600335 0.00828353683356279 -0.032991877241343656 -0.0316487155120487 -0.047348647488962954 0.06373818172880426 0.029572892917786132 0.004859527228410307 -0.06099747906234792 -0.05653516305838518 0.018028396689339053 -0.036841002304801855 0.08332413906870785 0.09412789573867489 -0.13148664058547263 0.007583042668139064
the -0.004715886196574406 -0.1051222292549148 0.013861394345599382 0.006862925795841608 0.10071643388977443 0.005298864863294087 -0.02764072651545002 -0.01759773278136498 -0.021214173171922673 0.03891285146778118 0.02059047752359193 -0.008280457417678702 -0.039405889749615626 -0.038138617322919836 0.0131028353687638 -0.022188038630884536 0.05180553334747512 0.045362869098379804 -0.06891467810713232 -0.013839208131790178
, -0.02028847851670897 -0.08553856234625898 0.014192634907336748 -0.02332311016857814 0.0795775113112267 -0.017994208804432622 -0.030140125108396143 -0.008841349547191086 -0.020851482952112775 0.01832296369906906 0.035710603848544076 -0.005315655865135583 -0.04338564659468042 -0.010580252940574162 0.00937210037418909 -0.02179734105010796 0.027850669141983093 0.05084843508574538 -0.04815697163955829 -0.016596730274704347
in -0.05311957253368467 -0.5721898862589924 0.03361567726883382 -0.05532075741158611 0.5260293716658347 -0.016559373911177146 -0.1347402759012836 -0.10743355875924689 -0.08033817106454391 0.18156425743207674 0.05197794278966082 -0.040129718399172835 -0.18924708285725036 -0.18907179725804482 0.03945595350116008 -0.0393520907018942 0.17989369172561875 0.2255864578363187 -0.37029742378375663 -0.02684628897112984
and -0.02005483552379189 -0.33482599900933907 0.016608328176558537 -0.0321619310368605 0.28115378497300875 -0.005233383656577297 -0.07431796697433563 -0.05780325616860419 -0.05331643145691164 0.09719278477950326 0.05338952863101355 -0.004847608677313546 -0.10942987845780075 -0.11449684820109793 0.016071455413656073 -0.03450012959115599 0.10592090744139487 0.1259296225646737 -0.2214719612437821 -0.012931762340899237
me -0.08585480111771727 -0.9731142013558279 0.05599596246165321 -0.10326530262383875 0.8084577789361114 -0.08569590549361268 -0.22229757355346885 -0.15228815246507418 -0.12138710349191029 0.32184186188107544 0.07631975384006863 -0.04530293197095491 -0.32320468617928494 -0.3262509665562675 0.06304850562747501 -0.07227334478963769 0.28995384916156086 0.2979317427080589 -0.6241178194495738 0.02070004179284161
to -0.03430564106973608 -0.3389114651650951 0.025869814210347637 -0.06379885942694892 0.3133836226927348 -0.009308295196876067 -0.06339002839397137 -0.0544583827450771 -0.05532494326841057 0.12636542023197483 0.04809425767253218 -0.018627085674184876 -0.11463301542928352 -0.11409655762830685 0.012233698643837533 -0.02312116639019337 0.09764529248210176 0.13052232195039462 -0.21897267783385047 -0.005254769771446412
you -0.07176913166175289 -0.7039863988797643 0.052395347181888964 -0.09775388313800296 0.5963795916385162 -0.029877330576942304 -0.19264345215054504 -0.11564663866575414 -0.1124309757497389 0.21534657153594658 0.07828186415089991 -0.031295775241714605 -0.2369985579725513 -0.21695710047578537 0.07737978510835412 -0.06384271376040221 0.23446531725006878 0.2551624816108446 -0.4978408873564882 -0.0026309232120160443
a -0.029188894788275313 -0.3116073561606602 0.030688140161307928 -0.039596019525367364 0.270702208238157 0.007102440203991597 -0.05620592195597913 -0.03849062587945111 -0.03023106865811247 0.12043126813600268 0.05349248573301805 -0.03400064805361427 -0.0989694023102223 -0.10440570720346974 0.025891053453594565 -0.034582232692902025 0.10706549179906213 0.12701956290513292 -0.20636239266576425 0.0026619950769535138
my -0.08727273696657213 -0.7788300098402238 0.09533113848659645 -0.07728153474615926 0.6446630510518653 -0.045641550089825 -0.184151812771478 -0.11269663861441832 -0.10951823311418414 0.2484618608575006 0.08044269092475574 -0.02930152719122138 -0.23235223145778014 -0.22318697018258582 0.049371385586421304 -0.06253751704718803 0.23403692887377342 0.26599221410126006 -0.5149011994462999 0.015080454395445565
is -0.040655567867917304 -0.5631319541711051 0.04906136695307859 -0.03972054095970883 0.4696759025970596 -0.015408445307791483 -0.10048261492150694 -0.09583335580561014 -0.09528582777986698 0.19504725036037476 0.04484252168710913 -0.03100748996090334 -0.17996245644720385 -0.1867248925229274 0.045234713186264944 -0.034417757244607654 0.17392237436734787 0.1961206796989717 -0.3738025943043912 -0.01440544248483438
( 0.007265298948282795 -0.06380781190468839 0.021767848458556022 -0.007428692998088576 0.04572061785562298 0.012066240270666322 0.0013624616135273183 -0.0159333485696275 -0.009993704635923297 0.02793776996219904 0.009053716825329641 -0.004186897155564714 -0.029498660114369687 -0.016498192673450533 3.277825590914745e-05 -0.013490886006846555 0.0280119365055493 0.022328855558459242 -0.03350323144620455 0.0046181012362082035
<url> -0.00944499204854343 -0.07501561279501388 0.016060870849611757 -0.011086298523873458 0.07310521690412979 0.009121099476995997 -0.006912023146330939 0.0007432378887815763 -0.01905981960867327 0.02723193816737503 0.006433860891873935 -0.012874970796991474 -0.020668003209047527 -0.024188519139622017 0.0014712946567708813 -0.014164926916580955 0.028297364707458035 0.027217320303268677 -0.04113698633392541 -0.0019880992235364607
? -0.11227003196681372 -0.857944822378357 0.09438546135249239 -0.10542902072761534 0.6987671502888173 -0.05122672719638528 -0.19757062423457541 -0.14297477968485964 -0.11912447452413127 0.2819668577948806 0.1142549352201837 -0.044336269645277745 -0.30212670403073405 -0.267130909902411 0.03354296851560624 -0.06448087334902855 0.2793963214078011 0.2720550557924471 -0.5587503391438754 -0.017048388047112936
that -0.11198506957371314 -0.9852235569131123 0.06995711285759869 -0.10187208872248182 0.8533108249427465 -0.048779667193083104 -0.23195573201771272 -0.17714087551790011 -0.14484675589886103 0.34882283904127087 0.12224802747952884 -0.054617989544968853 -0.3605901399337847 -0.28064402322834137 0.0903689186960174 -0.061965129274151126 0.2990177255000327 0.3381888925267451 -0.6549234485751486 -0.029624011749447888
so -0.10291151333771281 -1.0987729465228175 0.04415782936206035 -0.15507086724653163 0.9074156896075161 -0.06130400257315756 -0.2631100521425203 -0.18680402525966305 -0.1587958822756335 0.32040730979491183 0.10746552227344716 -0.05496897354707568 -0.36020658083681384 -0.3313386930274765 0.10084579100454687 -0.10639415849291611 0.31021791986193087 0.34777338863785584 -0.6996637507216293 0.017534428126946316
your -0.08032881590385334 -1.053678800349769 0.06144584007409108 -0.1277717185724848 0.8540340543114949 -0.08123634185242876 -0.2170859684976042 -0.1709892496219082 -0.13992050334707465 0.3471359034546091 0.0919140340561283 -0.03862884990628545 -0.37345837083283173 -0.34255499933140715 0.08303496052222918 -0.09072806771535813 0.29976262390486247 0.3590334071222991 -0.7089974947302544 -0.020603410575887424
u -0.13178088605648577 -1.1212951809721876 0.08690327181055595 -0.10958436951310048 0.9299429724165887 -0.06220825408049056 -0.28196711120800805 -0.1647418574059639 -0.149825436274717 0.33770623626344115 0.09405246571187705 -0.0706498809530565 -0.37731020602278875 -0.35231030355258236 0.034492736466061 -0.09918139263554482 0.30575235796101563 0.3480178515719351 -0.7000379770139099 0.025586125278528018
... -0.009487841192834367 -0.08656283897933861 0.021860109268602816 -0.011207605859390886 0.07539037832687959 0.009371599322728323 -0.009752962816738093 -0.004689040044291597 -0.01683436725713978 0.04383507101639151 -0.00037528058609915654 -0.0089495195054014 -0.027048537290362638 -0.0313049037619211 0.00283374109714927 -0.015526635187929811 0.03496383774157523 0.0303316795590969 -0.04912539126636962 -3.0952591600481614e-05
of -0.031648952992230854 -0.33954218904705313 0.04779495256356506 -0.03495572408868079 0.3093648764652517 -0.03334702940189742 -0.08023803162441903 -0.059349230016849296 -0.0475757819679934 0.12422024979494219 0.05894833156376093 -0.011502386934283874 -0.13436321139116295 -0.11697947649782386 0.0260265765037698 -0.0290576585874983 0.123610191875417 0.1497211667970102 -0.2436075594425486 -0.01756184168512287
with -0.06096148610771586 -0.6705947918503427 0.037677884313122786 -0.09100684729726656 0.5746424829713344 -0.010739132445855466 -0.15576346400184599 -0.10483925211213352 -0.09610771623237171 0.2173938397759219 0.05479649167929325 -0.055746075154737826 -0.21103172658887595 -0.21740223611033485 0.02934229204492994 -0.05738643598085119 0.20267052919225456 0.23487903775377844 -0.40529662582522247 -0.037845021203125905
: -0.059812638511176075 -0.5440644665791519 0.08643934843025922 -0.07173185233397027 0.47214611409168883 -0.017391850961326987 -0.1365356294174077 -0.09841857010287866 -0.0850069967580253 0.1713897729035669 0.07773583132173144 -0.033532137824390996 -0.1616143133393628 -0.18796547898694077 0.04963127338169302 -0.05857054077399325 0.16699272269360377 0.22257142029060215 -0.4014969190955338 -0.03742427301675739
rt -0.13056459820338068 -0.9823299780150225 0.07305867898534643 -0.11625763588841685 0.7854335462577506 -0.08834752692251287 -0.17549871100541903 -0.17314183392436489 -0.10502192200897384 0.31771260476497226 0.11414296930495059 -0.025364037742023678 -0.32136032389773483 -0.31289432359308617 0.07368155209311521 -0.10646501526881223 0.2907602035952711 0.30626022892245985 -0.670141760272242 0.0035161350558721148
out -0.11688664523197155 -1.062814837482837 0.06128610069430262 -0.13615477810595616 0.884984658267087 -0.08398280128154231 -0.21868907825341594 -0.20277940435997643 -0.1556989791979543 0.3430344264386442 0.10783737980231117 -0.07363498962881665 -0.366714024463203 -0.34223380929338515 0.1194517861976826 -0.06693974142130339 0.29336909449465726 0.3674994034213772 -0.7013721388741642 0.0008336032903225153
he -0.05715162716021213 -1.1234067767214082 0.07846575439546515 -0.1289956278984364 0.8941335829310301 -0.05497555318323619 -0.25685496449125167 -0.18292019661640685 -0.1846660335596388 0.36572529691814115 0.10641885999738657 -0.07425822647938639 -0.41229705243124515 -0.34481104406180235 0.10574081818648869 -0.09706177163467482 0.2780302673543392 0.3830103273113093 -0.7226667597976649 0.0030255456400619467
it -0.10380771521822063 -0.9822229742213521 0.09718361525851371 -0.1285619316780447 0.8038724571002036 -0.05181631646953326 -0.2331653257087551 -0.17884606916055443 -0.11327590236599998 0.2920739790040422 0.11336183305237603 -0.04785244623255704 -0.3487869025243374 -0.2906590641468466 0.05453887833995045 -0.09230535544336477 0.2593225144105285 0.3300651288852266 -0.631332002040019 -0.006056152105118214
" -0.08924512006994259 -0.6753944288615351 0.07816566919036176 -0.05742503611806076 0.5646988655023222 -0.046121630031020114 -0.15239201601197033 -0.12686032555938698 -0.1019684360692661 0.23555824314952345 0.04230081000915564 0.0006566325673002026 -0.21917469655395325 -0.2377729784366479 0.0644988702367276 -0.07894522118688849 0.23639070607696208 0.21175438402789631 -0.4421636634861903 -0.005178402538320662
this -0.09820196912033002 -0.761288523629909 0.06689202446537756 -0.07016539087457205 0.6555827289160662 -0.0630035432493361 -0.14934526195389927 -0.1548308638521334 -0.13339247649171382 0.25080260547191047 0.047890919016174247 -0.027091280181571722 -0.22842027439163098 -0.2815495235025832 0.06304642903341874 -0.03285864368579333 0.22428589333878954 0.274838677244396 -0.47938004760742886 -0.027922749975918867
on -0.09552482157586421 -0.8357036532860215 0.07039074428523641 -0.10507463550383467 0.7238344127411847 -0.04250415818680863 -0.1946439205139355 -0.1486354238901339 -0.13693457064741082 0.2739559299769989 0.10029686246890773 -0.0588286105496637 -0.2684784183332924 -0.24205868607551842 0.0410440050153869 -0.056697134877041 0.2431146990074312 0.3007619418483578 -0.5517430657883857 -0.021027090893899442
be -0.12140546544669926 -1.083270262815212 0.04484665895591152 -0.13147275315330953 0.8943005199459261 -0.07504643130129528 -0.22690305846082487 -0.18199690499438947 -0.1525462871026304 0.3458678155904329 0.1320146726874065 -0.0263636982638938 -0.36826853214744504 -0.29405556221853224 0.09535996618504337 -0.08615403761061431 0.28830821806010937 0.32465879775326445 -0.658258142725592 -0.025028794983079625
i'm -0.11776745829693386 -1.157833957462572 0.09166749185502117 -0.10979670692228775 0.9453374095704259 -0.08823236480463179 -0.2730807170948984 -0.17157988444221964 -0.17086456357128008 0.3707170529171374 0.11262816381821017 -0.05806940569648571 -0.38703548313455266 -0.34038918549942565 0.11158829445626121 -0.10535021779252855 0.30172043931529585 0.3365466348479381 -0.7164031354294259 -0.05106646282850175
but -0.1227119705031863 -1.102353398534171 0.08488263826811507 -0.14099702674612363 0.9364584904327228 -0.09821591644925004 -0.25142449792245947 -0.19501799164314973 -0.14242700567940508 0.356686280216092 0.13236808932510227 -0.02631795122667155 -0.3780759301284575 -0.3399464037311222 0.07045537734365158 -0.10249648488126228 0.29827027670479245 0.3438552935830606 -0.6707686876232318 0.018465311677997812
just -0.0923351261358609 -1.0858371754192642 0.09091231149846148 -0.10011863630641485 0.9218113197198635 -0.07998569223783479 -0.26087417310159 -0.20026113999283032 -0.18801373892390896 0.33137024971813667 0.111000924337729 -0.05742927434692893 -0.36244727597326887 -0.3244226489897392 0.07835670523287537 -0.09072731710001905 0.29386095252464367 0.37644477724023684 -0.7178886671409125 -0.0007081663629907443
not -0.10683675587147654 -1.0612009986598459 0.04352051246553241 -0.10906617582786679 0.9112299846186094 -0.08025846724753981 -0.24444692841377472 -0.16978859872283222 -0.16453979480527753 0.3495316572782355 0.12222672160013336 -0.06658804098368376 -0.3900358865817513 -0.36111362802669006 0.08557552059740607 -0.08572693337782149 0.26840835000364655 0.3617152033858169 -0.700812217338876 -0.015700915949644467
all -0.1308398544042517 -1.0400065065950428 0.06366906956882538 -0.12172431173330121 0.8521411888138904 -0.0901634037254905 -0.24500644670943622 -0.17679590800107758 -0.1539518069168348 0.33644464586208755 0.10286983096338834 -0.03763852417581422 -0.32599428252732643 -0.31717879217328576 0.07548846802793249 -0.06570468315774144 0.3104697702169935 0.3621788333090213 -0.6741941219610939 -0.009306701528652254
/ -0.12340227671895411 -0.7933724589647742 0.04516829823637345 -0.061237367959193253 0.6177503344051691 -0.02796792514015684 -0.15987219598865418 -0.16728565521424066 -0.06907195383687427 0.28196898072034965 0.004288420381932516 -0.031071127115095444 -0.29196046072196186 -0.29374404666125675 0.042459098618740455 -0.022605462722462524 0.23653955205535093 0.2758012925767591 -0.49270280085457047 0.025559366211034648
get -0.13271227520026488 -1.1224286634343628 0.06345944438013516 -0.12626808856172583 0.9441807370559713 -0.08324950617251503 -0.25609654391722353 -0.20453984922165194 -0.16201626776314093 0.35788753118802064 0.1284210904528157 -0.02300606103770483 -0.34614883361793825 -0.37559377752515655 0.13453953348460118 -0.056656983149749214 0.3197845639482184 0.40987055060314154 -0.7139601511535887 -0.006307285577218776
up -0.11152160382416008 -1.078088437564141 0.05591264079943444 -0.1473745398117381 0.9314119013506805 -0.050013999776198435 -0.2488160929344259 -0.19013355766790724 -0.1668595431729152 0.3636280201964482 0.10493796714573929 -0.028324949052054113 -0.35495552575223116 -0.29867023071926907 0.07181926869351514 -0.10816648241955283 0.3438946109794531 0.3740712682936896 -0.6904557416515598 -0.022171631270054754
lol -0.12376677346382696 -1.1339229001853268 0.08747472314526988 -0.1450336631596476 0.9461832090373695 -0.053975919303944464 -0.2774374422217849 -0.21277706663828497 -0.16294238793688692 0.3395430661486847 0.10543043506480575 -0.06464686782339112 -0.3973913703854148 -0.3629973190769556 0.06698650800785505 -0.09181232494284576 0.31398742293092363 0.3779888679150551 -0.7305248405094054 -0.02091043995779385
follow -0.07329856798452732 -1.3102705207998977 0.03220711483895001 -0.20261076164184094 1.0291793210691678 -0.10763267173313405 -0.27433945381545427 -0.17730186432295356 -0.14256975396101057 0.45945501809343703 0.09083471930430011 0.0025132097415551664 -0.4221573737590279 -0.30830294844795114 0.024978163244828804 -0.11627463338241299 0.33166653290438003 0.433225849584392 -0.8032275130788241 0.04798886695558087
if -0.11194910654869725 -1.1392474659646399 0.06307588991474432 -0.14308890131584537 0.941177775736029 -0.07465384452251404 -0.27107577978186514 -0.21480306508991118 -0.17962234562131185 0.3620069651292166 0.15628825048021752 -0.029123468764740645 -0.4199599293760408 -0.3324021139458441 0.07751170940568962 -0.10715747082911325 0.32330496851015034 0.33303664767355784 -0.7288402476276785 0.024320625535673514
don't -0.11218751859663709 -1.1551209138290366 0.06308974820523246 -0.15021983465990463 0.9418754075211517 -0.07746667183010321 -0.30667776337603797 -0.19135106987369122 -0.1842164570420735 0.3654571942461413 0.11682705664276609 -0.0426216982297154 -0.37372183162607536 -0.32422095564562975 0.07942641417500645 -0.1288866539457067 0.3223954642656669 0.41005635474815605 -0.7072168425995331 0.036056964588209055
will -0.09996705414143241 -1.0447853376058593 0.030961557816165143 -0.13514652754770376 0.9156423282599488 -0.10151462023890306 -0.2759375462579127 -0.178256548952501 -0.1579209198558153 0.321596280598652 0.10929360786199492 -0.00995203193413171 -0.36185443506021414 -0.3040762272166236 0.07517624401165524 -0.09822798256333833 0.3117287651003087 0.33946107711792906 -0.653407405496376 -0.04755358493347387
please -0.07028273902679721 -1.0917579615799267 0.026593845874356193 -0.11749933907604974 0.9213262401664506 -0.07801199219765181 -0.26336320440396116 -0.18104111084401175 -0.09746095191799359 0.4074933281991484 0.10984619805840819 -0.01072359912081612 -0.3818119516092808 -0.4055197872574407 0.08727807287750677 -0.07238496007961369 0.3148745358152395 0.3120197162360608 -0.7524771590695001 -0.05552120995792807
thanks -0.15932584686890014 -1.0786348540673782 0.03091667900430939 -0.11876445858622321 0.8804906695282395 -0.03701849038275849 -0.2106195334656308 -0.14206653061434696 -0.15111694012629548 0.318911001437963 0.09058747037542646 -0.05902007054132149 -0.35994484298587165 -0.3171429993899539 -0.011268665952324505 -0.08761060668233926 0.2904011149797118 0.33012268550533913 -0.6419634270931096 -0.011361811452380964
im -0.12071631942374948 -1.1139926946391965 0.047748855407596075 -0.12049687261731798 0.8837244582599723 -0.06541405119996646 -0.24654443365194986 -0.1775134025122269 -0.1642631560633612 0.3420885577323724 0.1187439448211403 -0.032093064020694825 -0.36885141593591336 -0.3623228289586277 0.08376891698326241 -0.11094025363485129 0.312417640878718 0.3629330391290537 -0.7219278598368255 -0.007645529445888024
<3 -0.14220052210389303 -1.0663540468023032 0.05067070559752206 -0.10504682623842766 0.9187461435736219 -0.05603491217930993 -0.28577617896899477 -0.15033439191233217 -0.14963913519136327 0.3619579620998364 0.09703549875743867 -0.05588729290256375 -0.35734455831725703 -0.3155992922799268 0.06408206706532936 -0.03312023169351961 0.3354559468437923 0.377603264278697 -0.7466838978695605 -0.0083667867791621
for -0.048204291387168474 -0.595323995337923 0.048597129966185676 -0.04871111656311306 0.4509883576341331 -0.018182819503895775 -0.10706799300403055 -0.08828320471672713 -0.08210112340773223 0.1940451959137566 0.05334262082332157 -0.032713951395404166 -0.18374946148444643 -0.1898458618310526 0.04382114992496357 -0.03453381880226287 0.16110517346690828 0.1969310497838378 -0.37143403605131864 0.018672100556563546
have -0.111033206284114 -1.044313405143295 0.07825900787457238 -0.15043132591854116 0.8796291427578543 -0.06893317259156938 -0.2521898625950267 -0.15614096216437182 -0.16383450293474358 0.34531128740050593 0.10867387125389102 -0.024328495617431115 -0.3255673812821572 -0.3088163527797525 0.07984417374727928 -0.05553276956829173 0.2703294107059366 0.3680647620368835 -0.6342536471791086 -0.029542380374661652
love -0.12730264885128126 -1.1286876896383595 0.06776564259735848 -0.14085229786997722 0.9301660346455988 -0.08080141721317236 -0.24650396294628657 -0.21733685525903437 -0.12789565712785164 0.32276013093439304 0.112687833405109 -0.02008893149918879 -0.3508714263206463 -0.3649468787860427 0.09264744518444519 -0.118262620456442 0.3631970367139159 0.3747837990500527 -0.7535892851726967 0.004095006063441688
are -0.12437347463074543 -1.0177359442313787 0.06410006966095419 -0.10252552248702983 0.8093314002240218 -0.09535354074931278 -0.23793419245130254 -0.14608653361938684 -0.13128126797694273 0.330932199579547 0.10358913351030728 -0.01986567953664315 -0.3346458076675285 -0.28422653533244524 0.056428711043197945 -0.06004914579084098 0.30514981252433404 0.3302351824382183 -0.6469529863025817 -0.02134114050229158
at -0.0957288369502357 -1.0214950681036197 0.09954830829950988 -0.10688654580406315 0.8525962263285056 -0.03550355675438672 -0.19412777113970117 -0.19790841294598252 -0.14823494268831397 0.31383905055506833 0.1126718141122638 -0.07847288161065723 -0.32901627369580505 -0.296344644255661 0.08425009693801054 -0.09778136858060386 0.2939601587914749 0.3625935319016626 -0.6488098250354732 -0.019322118301656022
good -0.13498836667626965 -1.0974605123538552 0.08270732554954244 -0.12555346168196918 0.8602550473783963 -0.0959852265936028 -0.2165902046601964 -0.2014606958225936 -0.1752463136719198 0.33351892229577074 0.09679670665671528 -0.03559478682475066 -0.38828905961257887 -0.3545825134309714 0.07612703892140606 -0.118591287179376 0.32330785301892667 0.38812656345304797 -0.7191875057993238 -0.03803238541277157
know -0.09554110176870535 -1.1508070758406406 0.066328383957195 -0.15660718530327658 0.9354629487860184 -0.07806040207699909 -0.26417666396545847 -0.21082038230273328 -0.19175143101167635 0.3673199192788814 0.11184437703049019 -0.05596790530001544 -0.3582924842677735 -0.3441091911060212 0.07477837292783655 -0.09995883923837551 0.3406530967525238 0.34749423789158124 -0.7255703834616881 -0.004165494971566644
when -0.08005742697429834 -1.1046938730209492 0.08351853934054519 -0.15713267084795052 0.8882958212397433 -0.06883172214269706 -0.24828553919448468 -0.19915506596579663 -0.14430437464344656 0.37586891513022025 0.03299091246092573 -0.06273618044248055 -0.4054200001031045 -0.31813525374483254 0.08174712406593158 -0.09608111507822403 0.28095678775713556 0.38551584618568246 -0.7241572227774553 0.005928988034313337
now -0.11150604392812481 -1.0701256310889793 0.07536729304636487 -0.15121749657834055 0.8899823600118948 -0.07408280615049649 -0.24736079973185093 -0.19539430091861645 -0.14720532327609528 0.31240047462838644 0.12191390680404848 -0.04969122831854594 -0.36018142472830766 -0.34898862992955987 0.05869944679261853 -0.0659376324403977 0.28580497164134067 0.37983904972731847 -0.669652465520289 -0.01524345910460641
we -0.16229029789635077 -1.0741783790603479 0.06233187715748673 -0.1221074488527787 0.9146892402384298 -0.08526102595949513 -0.24678511096985714 -0.16092178753770123 -0.1746792226305785 0.3592761492175704 0.12295996167516753 -0.047202710753459956 -0.34811628212409984 -0.3180475028827718 0.07966871239644256 -0.07089343473275607 0.3006574308553841 0.3580005298888462 -0.69635289781837 -0.036504305095114806
no -0.1269934438925624 -1.0442497295860413 0.08521917450188089 -0.12410323675673751 0.8662304449715058 -0.047295948222270276 -0.23669638276734958 -0.1849219144106026 -0.13510358630309863 0.32462814476572865 0.10411555172239625 -0.07582585940284865 -0.37406419644896866 -0.30653292918650765 0.09449789109514696 -0.07935723212104887 0.29770008100911094 0.3271973069921718 -0.68439052056146 -0.03843114194536363
can -0.12123873344104201 -1.105974150937444 0.05563229270890432 -0.1428650799523881 0.8960297846229474 -0.08155467656515533 -0.23591216040238758 -0.2046091428912206 -0.1726227394114359 0.357338555188208 0.11694463765209634 -0.03423274654894565 -0.3397267389496815 -0.32922978571404554 0.07296080074429964 -0.10195072634170263 0.2905646222570973 0.35549748056980324 -0.7074224000532454 -0.012769683310075443
from -0.08897674551271414 -0.8916266717377742 0.04012235862225402 -0.10160839931740365 0.7562902026403046 -0.011999962657807027 -0.21846467259203486 -0.1634274897492568 -0.14885017736659562 0.3152316924331116 0.10329943793045333 -0.06288602871880995 -0.28137797569173295 -0.2832099130287022 0.07250953806411753 -0.07379773307534408 0.26200685193939016 0.302216477085235 -0.568885867629982 -0.028297678949389993
see -0.1037833618074414 -1.118994986276433 0.058217813792232426 -0.13521553846506162 0.9436484812945508 -0.0995988225731192 -0.2192271499689815 -0.21437669753615543 -0.16310416719735085 0.3266711184472752 0.08204775793804393 -0.047885939909658344 -0.3529789405761335 -0.3491610264560961 0.0678779084530088 -0.046590842552654874 0.3395005125093751 0.3877077227768694 -0.7392306088505389 -0.04848337891725925
back -0.08890965401085817 -1.1100710222241064 0.06943852586578149 -0.16064193718791497 0.9169698192866427 -0.07711228694261744 -0.2682056720171933 -0.19171579287291815 -0.12797878589506106 0.36813527850015654 0.09376926269063808 -0.036682795491406565 -0.34567370417681786 -0.3323144979493077 0.04336401320850753 -0.10104502771416718 0.3140448805111808 0.3344024313272884 -0.6437033638855133 0.0018322736834161892
about -0.077295924496269 -1.0691067301501076 0.06207124710827765 -0.16544691510835227 0.8616290719760991 -0.06094137041578276 -0.2403802383951992 -0.19631184586828423 -0.16460272138919263 0.31422339293578405 0.06628642846375858 -0.06133808303229841 -0.37144930909993595 -0.3222618071591369 0.08965517550097764 -0.07990569506881999 0.30427143109201177 0.35943047645541104 -0.7132544551999792 -0.04637669891870663
time -0.1061956262463933 -1.0662108354461617 0.046654203131981556 -0.15644991881529585 0.8402364900912559 -0.0871780162887539 -0.23707017762216576 -0.20029055482389552 -0.16938190122884572 0.3581273714285989 0.10530491404872051 -0.04436655070900272 -0.352137778846342 -0.32269397930867544 0.07586883753044892 -0.07111636889016945 0.3276287261674456 0.35547890801272075 -0.6539275094994926 -0.01395717368612908
got -0.0717582432710877 -1.0678132446197015 0.06476382690987915 -0.11113229640799206 0.912128432283365 -0.045835130752950995 -0.2455325722620103 -0.19369684606809928 -0.1280970042159695 0.3560071519253895 0.09011667860618544 -0.050384533865982364 -0.3468480025409155 -0.3328820741336441 0.09148887542156334 -0.10448404952388723 0.3212475885877428 0.3313493361325288 -0.6768354061126243 0.004055387204385836
2 -0.03777219016729052 -0.9497018454621716 0.0865743988446621 -0.08369506797022239 0.7476158772539419 -0.07874448514859086 -0.163276670726422 -0.15073116878789986 -0.11086836937192943 0.26922476231537185 0.10779740942426956 -0.02724122761396806 -0.2873407547562646 -0.32428546565762495 0.09962969045329814 -0.07237307999092336 0.24635674538969635 0.32361979343024955 -0.5727968847610375 -0.02498257403377551
can't -0.10786347638590893 -1.1566762813537748 0.006873048741670449 -0.13437524760212438 0.857987730629507 -0.14808439610998222 -0.24449185356339528 -0.17683128573632786 -0.17383689837348676 0.27972963342685137 0.08117814617315432 -0.0399278678424 -0.38881164835953674 -0.3389243785107507 0.0829775444022275 -0.04123930494335617 0.30193899661769424 0.41605359874754455 -0.7905093187887258 -0.02002579714350661
- -0.06427142179275103 -0.4909941708922296 0.060382438119558436 -0.06142449478731827 0.4214330587977402 0.013010458182225034 -0.11678632715404993 -0.06818536527103324 -0.04467489597389855 0.2009869250630433 0.058685247933784386 -0.008457200975196384 -0.15973695222705278 -0.1795993391455166 0.06551848470599207 -0.03680141912544847 0.13678924888649419 0.18175607769733737 -0.33712384173095045 -0.017993180457547133
) -0.038258301277036194 -0.6704529371279833 0.057964538404790725 -0.12283423174158489 0.570353105710501 -0.05470353985132755 -0.14414382954498564 -0.10482310344319408 -0.05814518618744648 0.2521761729414322 0.09944681821726357 0.0021341180865123936 -0.23687655317735165 -0.20733706468161003 0.03696159316392037 -0.05125486197683693 0.20013349132518463 0.24412640963927923 -0.4429764504044847 -0.007647008517874295
was -0.11033389649631015 -1.089027081687187 0.07820016720770087 -0.1378627032902271 0.9303840865070938 -0.07982920236608704 -0.2213879850984098 -0.21495097304279978 -0.1385390024238877 0.32277884298776033 0.11118913710729596 -0.046043702704312336 -0.36817593953159145 -0.3443312052702581 0.07363600279155984 -0.08522680647636008 0.3122393066838305 0.37407270150981015 -0.7345320550718037 0.01271934445215675
.. -0.1202804706720613 -1.082014424832694 0.05662342370170461 -0.1339960780850941 0.8786346855732898 -0.0558475900002927 -0.26646881163226394 -0.18351117856318838 -0.1345825380234722 0.38484657888415985 0.13075547489538156 -0.052733651592549044 -0.3388511139328981 -0.32460492067421504 0.05163032917382927 -0.09493488000372854 0.30602285355336295 0.3341392941541093 -0.7007497302726245 -0.01007378081041831
like -0.12390506166411272 -1.1045845360987443 0.0826954057510641 -0.13322494642977972 0.9194554071243374 -0.10227148629425153 -0.2619416880180898 -0.17421695697168957 -0.1847665896217175 0.3652153707787326 0.11539885793251692 -0.04432424240258406 -0.3948489623106157 -0.3288501670002948 0.06658181874801482 -0.11597972907825044 0.29004820311537716 0.3780781445753022 -0.7208678059386681 -0.012532520966049922
frame -0.17792758207260367 -1.2255899558441965 0.11495152700269741 0.034149002020364895 0.9142351979667545 -0.08637401099342332 -0.10690376920496295 -0.3536293568864769 -0.2328941267338861 0.6938726066382108 -0.5349552550310017 -0.025092971102279742 -0.2970298801746216 -0.7486306553629223 0.020618436960894253 0.1900409994278171 0.4439283967759747 0.356564600334174 -0.7763470171062314 -0.011086961578159192
& -0.09765928046548955 -0.9122452284444329 0.058545150609742504 -0.1292526998248735 0.7981380027304835 -0.03265039631984047 -0.21550802829214574 -0.16892002215948104 -0.16081085203883577 0.32196630161981926 0.09992250924341073 -0.024672009075219558 -0.320949769564509 -0.2939429362338779 0.07750228078316844 -0.07454115520679692 0.28346326506614117 0.34073823022153027 -0.584270026852982 -0.0042340652050619825
do -0.11252554837006538 -1.097322952705198 0.06089090112016231 -0.11870537970957205 0.9200364409315741 -0.08302871311742129 -0.2583303956270293 -0.17422603921838292 -0.20317022024044182 0.35443679644711285 0.09436775728808748 -0.03680904833330989 -0.36420403973663623 -0.30469951745378976 0.06888206279705643 -0.0776174034474266 0.2884291781060477 0.3785717314779563 -0.7167285909145309 0.0045023740876333675
one -0.11288201201280569 -1.0130909837022266 0.08791620084928131 -0.11660248691525685 0.8545006854304099 -0.06242189338548252 -0.2421480605340825 -0.1787081161277997 -0.16495336373650096 0.3633571812444702 0.09124045693136312 -0.03532896454041557 -0.36397188950110493 -0.34451369664627013 0.10399191797863827 -0.08911859298984183 0.293690035974673 0.32587600889015506 -0.6671261593240001 0.028344239048021025
go -0.12610782725783493 -1.0974434667729318 0.058279815782720346 -0.11929170660927339 0.8925613633936732 -0.06894613412589472 -0.25571624935243975 -0.2032375011640392 -0.15710335940068443 0.3092475092403479 0.1616743630692658 -0.03373337371931131 -0.39116636253594267 -0.30915502279868995 0.06241513152227366 -0.09127343391902198 0.2992373945503154 0.34530672120723016 -0.7290129018011661 0.00557312947546362
what -0.09915468391291418 -1.0550507879600284 0.09726167714091931 -0.12913965435119523 0.9068195650573018 -0.08701436523200445 -0.2382947095573453 -0.20642420279790594 -0.1983048143192804 0.35183086677063785 0.1148169538177303 -0.04666966374215487 -0.3517676033030186 -0.3346657200289903 0.1138792871126776 -0.13651848230638555 0.3232921462717411 0.34832555875051474 -0.6847105701748547 -0.018652346200457838
day -0.06948856930578023 -1.1068151948642178 0.08613369313772744 -0.13133934084804524 0.942075787667488 -0.06658555791941988 -0.20684404082475952 -0.16087375658799835 -0.16958920735632818 0.3239701329625803 0.13400996940926505 -0.06835164676982056 -0.3874356066173842 -0.3790406633199324 0.08293530115399698 -0.07942409046110566 0.3218909244342886 0.3485789117970274 -0.694468156545865 -0.016339410810119383
too -0.12143418308046176 -1.1094512966636207 0.0993752681367107 -0.14980861538586726 0.8863038170681415 -0.0815589329213537 -0.27119523903087406 -0.176497167017616 -0.17652774021493742 0.3367532569197609 0.12058025134933215 -0.06306638624780907 -0.3708538133713747 -0.352015817601618 0.06610368090134344 -0.09099554675323705 0.2722741399632137 0.3484482438104108 -0.7091873938336476 0.017659659178014153
want -0.13672042778150378 -1.073295693298652 0.04962707944730357 -0.11716722503296759 0.8625675534408176 -0.08060500688411278 -0.23608481233845435 -0.2109600441133797 -0.140616425234404 0.38750029264599023 0.13587438566428078 -0.050672513961671176 -0.3610465995698987 -0.30949253785710146 0.06893278102184629 -0.10464929617986317 0.28921310146065415 0.3694088400411786 -0.7302856069280672 0.015630123360514357
' -0.11649282554496913 -1.0876429958892533 0.08840636556300786 -0.10796555356148368 0.8811631770318147 -0.011341441367653731 -0.2493344818711912 -0.1454894485899014 -0.1680261331954179 0.35209109109176445 0.09834831165603085 -0.07861528920520423 -0.4018268522771225 -0.30711702744770153 0.09159331441639879 -0.0860436929114531 0.3034504627623392 0.3604765513429375 -0.6420967068544563 -0.03347621703437713
it's -0.09377481008278266 -1.1066172495293505 0.09912721431633222 -0.15190593047096165 0.9129221836568611 -0.06448680879914338 -0.24088516709443153 -0.1854101020663 -0.14368897704477132 0.3090024837196558 0.0954144879828891 -0.07666657282607013 -0.381940302932522 -0.33524735458821864 0.062248545735815584 -0.07759019404163003 0.28739965270316914 0.35470265516276767 -0.715223469106228 -0.00507270125906618
how -0.09005206740187263 -1.06702630736406 0.0615846342802422 -0.0992169198454913 0.9153539051583199 -0.07387654837071281 -0.24364293056378278 -0.15052791896766587 -0.14637537296952094 0.3377024400301474 0.1266434726197472 -0.017495518966607625 -0.3656232658518068 -0.3340614855385643 0.11076227469229617 -0.05182038537058456 0.3220199220210614 0.3923691133517466 -0.6833013683611312 0.024375207844557996
x -0.1534887515416009 -1.1219346191833939 0.05222846721906553 -0.13321139428267686 0.8663585394730864 -0.023505999341716603 -0.28980342335215137 -0.1429630887245979 -0.14731911032803832 0.3604141120056361 0.08904342747008971 -0.04180122479715825 -0.39671091591725194 -0.32376552200167413 0.09968020748160637 -0.10971043017958548 0.3038921100158456 0.3383332643514105 -0.7028160771915501 0.008510956302011445
really -0.11438113495601848 -1.133091706499872 0.09155426071716058 -0.13083631980545984 0.893396853965542 -0.0367953676477613 -0.2338948809468616 -0.20514373353684776 -0.20513796472606302 0.31708547332714176 0.12828973332672358 -0.053140532235937 -0.37874404704645703 -0.34832139538889134 0.07995649968328764 -0.1355823309591503 0.27765263519876526 0.35390188348648843 -0.7420530395653671 -0.015821719565834474
its -0.1074516490605614 -1.026715059524712 0.059940311040793615 -0.15112338940061085 0.8819880668127871 -0.07232607085637624 -0.2236423244753284 -0.18212497390607474 -0.13770900572336517 0.3065040209948985 0.09278461540244534 -0.0598821786059274 -0.3390608149743797 -0.31968515424116 0.08369480957514727 -0.10886506131259338 0.28138208380810653 0.3627856420663975 -0.6767913928775853 -0.02983905725336323
today -0.08073504550282222 -1.1173630443278524 0.03564476927240608 -0.11108431628817751 0.9433083103400411 -0.10203219104517353 -0.20060327202576778 -0.2204009872699368 -0.17689166331691872 0.34310425292471985 0.11207161827727248 -0.005446514189638432 -0.36856855085718726 -0.38293205531910474 0.049914989985781894 -0.131778426809724 0.2867646477551012 0.35751187648936433 -0.6556197243524665 0.03962565165652342
haha -0.14198491294537016 -1.063821730227849 0.11653322485617713 -0.13161426050792394 0.8918377603489522 -0.053467316060560266 -0.24454238825735614 -0.18683797226530025 -0.1499940107713435 0.34196582604544223 0.10846130134975183 -0.054239401826764774 -0.3401415597188796 -0.3139242589418682 0.10106403020811239 -0.07658294294130105 0.3159832052633302 0.37307648215902695 -0.7003908897951123 -0.002981782142033929
going -0.12200504150875936 -1.09183258233739 0.08725349333766788 -0.13830050428548205 0.8893715371511247 -0.07563735996130656 -0.2472041614444675 -0.19216014369722265 -0.17711075204315124 0.32349948139590967 0.11262901075932431 -0.07280518359225378 -0.3391358213029917 -0.3208096821592359 0.08134882620501092 -0.10697295000936442 0.2725584347134098 0.36556871366096616 -0.6794118685801689 -0.025483549163668517
think -0.11740389150140648 -1.0624994986780816 0.1002959862846333 -0.11120950955936422 0.9005583379267037 -0.09285622080105721 -0.24822683254019975 -0.1886020483684734 -0.1809797394495711 0.3351161793662415 0.11730671711276809 -0.07963602436521149 -0.3843472576199552 -0.2881637411890336 0.08031111359932482 -0.08224493129078764 0.27433380034104626 0.3542041501549065 -0.6592626437060165 -0.011492008598513894
as -0.1259296546317322 -0.9783386962791182 0.07216338711538206 -0.11263149879866127 0.8196144182961729 -0.047729386048477845 -0.19908286180044885 -0.1768037889796711 -0.16218831497782943 0.31713573153613767 0.09256347287288476 -0.06702313804589165 -0.2982320415919644 -0.30965179678933186 0.05395463205438013 -0.0789011940727504 0.2598049090735604 0.3702049746270347 -0.6444913510584379 -0.0014974123320759098
* -0.17111359162077866 -1.0841328012575309 0.020738955330126124 -0.12167752326696862 0.9316344273121815 -0.019921746247861735 -0.22195534823183719 -0.1121201522298058 -0.060426822019145156 0.35933163746809854 0.09993088738044115 -0.004737211809254327 -0.3732429461988605 -0.3543812720599355 0.086191893826815 -0.11555313284908934 0.3180502238528729 0.3268095805548872 -0.629634674247208 -0.02263689043873715
her -0.14039306644008623 -1.059838147737033 0.05648118633784085 -0.10092631263610982 0.8810513449515115 -0.06864520444341297 -0.23643051078985855 -0.21662745271639022 -0.14269162050427733 0.31723152904789714 0.09466061983776632 -0.04682484950873929 -0.3633785935491681 -0.32182806572913214 0.08921869249642436 -0.05723204394597302 0.2576483013243542 0.3628361588905049 -0.7091583160109062 0.0025904851429292505
miss -0.12527764735856164 -1.0542455065900842 0.06651901766555916 -0.09775440067102742 0.8541569619954412 -0.08450032057519817 -0.2547146504051637 -0.2159823171607495 -0.13619217776189738 0.337891611463081 0.09543543459801852 -0.03544071939169276 -0.36425367613738435 -0.3326759263560933 0.05080285035905756 -0.06898243358344307 0.3133777531741432 0.3307583493850157 -0.679905440585335 -0.006503693354744172
an -0.08030827293900421 -0.8941041732556795 0.07262875939905539 -0.09021619382033975 0.7843972396609474 -0.036704555121519725 -0.2056411399959158 -0.16561159268961337 -0.10096286616982965 0.27083220685364956 0.07092725719995881 -0.0442498629460229 -0.30171066021367443 -0.2572350734148494 0.04101620515664699 -0.04693751645910522 0.2533804163306045 0.3260499866918274 -0.5924964779485662 -0.038483995585995516
there -0.08754536640663904 -1.0539041254150285 0.05075850734731906 -0.08561098635866599 0.9216200067900757 -0.06813752431667716 -0.2662793699577329 -0.20094541898897783 -0.1515363595297899 0.31536272058235254 0.10227720035265819 -0.0493508821071239 -0.3432403125543295 -0.3208854077502186 0.12194409176381006 -0.10031785900715962 0.30134682739683943 0.36961545462336853 -0.7637073779908099 -0.006984560745037722
